[{"bias":[3.3988118,3.5933194,2.9422352,3.3322582,3.3399665,3.6317368,3.5383172,3.3447003,3.5671725,3.1051874,3.601897,3.2274942,3.4626565,3.2945428,3.2137966],"weight":[[-0.4472613,-0.36524177,-0.49843046,-0.4671523,-0.45563155,-0.4199196,-0.37798968,-0.46011707,-0.38260448,-0.5449862,-0.3152714,-0.50319517,-0.462592,-0.42082742,-0.47164235],[-0.42735013,-0.34834513,-0.47763515,-0.44645718,-0.4354668,-0.40082324,-0.36067995,-0.4397303,-0.36509258,-0.5209345,-0.29996133,-0.48096442,-0.44180417,-0.40227932,-0.45106304]]},{"bias":[3.843687,3.8287387,3.8443809,3.8220103],"weight":[[3.599201,3.2941632,3.9565911,3.8795183],[3.7613833,4.164982,4.4525414,4.509027],[3.7834215,3.9831934,3.702734,3.7160733],[4.5212874,4.1562057,3.5352004,4.1731434],[4.1194124,4.150908,4.0993605,4.155383],[4.0963755,3.7866473,4.3342094,3.350418],[4.3611526,4.4257474,3.8550608,4.229198],[3.6030118,4.631763,4.6526275,3.6275592],[4.3541307,3.9901497,3.7778132,4.3373165],[4.1400285,4.138745,4.248427,3.878867],[4.0799475,3.9445257,4.3708663,4.472785],[4.3128195,4.218238,4.2683964,3.5684328],[4.242009,3.3450198,3.7067444,4.1024203],[4.308883,3.6744497,3.6443272,4.2593226],[4.0724077,4.1896043,4.4765778,4.2531934]]}]