[{"bias":[0.120017104,-0.22708914,0.12001695,-0.1530638,0.23807015,-0.1530638,-0.1530638,0.23807018,0.12001727,0.1200172,0.2380694,-0.22708914,0.12001727,-0.22708914,0.23806964,0.23807006,-0.22708914,-0.1530638,0.23806997,0.1200172,0.23806958,0.12001727,-0.22708914,0.12001727,-0.22708914,-0.22708914,0.23806952,-0.22708914,-0.1530638,0.12001679,0.23807,0.12001719],"weight":[[-0.09047432,-0.7546385,-0.09047467,0.046414215,0.8174091,0.046414215,0.046414215,0.81740916,-0.09047399,-0.0904741,0.81740814,-0.7546385,-0.09047399,-0.7546385,0.81740856,0.81740904,-0.7546385,0.046414215,0.817409,-0.0904741,0.81740844,-0.09047399,-0.7546385,-0.09047399,-0.7546385,-0.7546385,0.8174084,-0.7546385,0.0464142,-0.090474874,0.81740904,-0.0904741],[0.8149914,0.035832882,0.81499076,-0.8472916,-0.07465864,-0.8472916,-0.8472916,-0.074658655,0.8149921,0.81499183,-0.07465863,0.035832882,0.8149921,0.035832882,-0.07465859,-0.074658625,0.035832882,-0.8472916,-0.074658595,0.81499183,-0.0746586,0.8149921,0.035832882,0.8149921,0.035832882,0.035832882,-0.0746586,0.035832882,-0.8472915,0.81499034,-0.074658595,0.81499183]]},{"bias":[-0.49842957,0.00074415805,0.024189202,0.0064032087],"weight":[[0.42714253,-0.5179101,-0.53042716,0.6353896],[-0.6502783,0.35671496,-0.39587253,0.31860825],[0.42714047,-0.51791,-0.5304264,0.63538945],[-0.7213469,0.61493874,0.5982922,-0.44000253],[0.40830946,-0.5646656,0.6919667,-0.6109917],[-0.7213469,0.61493874,0.5982922,-0.44000253],[-0.7213469,0.61493874,0.5982922,-0.44000253],[0.4083094,-0.5646656,0.6919667,-0.61099166],[0.4271443,-0.5179103,-0.5304278,0.63538986],[0.4271437,-0.5179102,-0.53042775,0.63538975],[0.4083075,-0.5646654,0.69196445,-0.6109898],[-0.6502783,0.35671496,-0.39587253,0.31860825],[0.4271443,-0.5179103,-0.5304278,0.63538986],[-0.6502783,0.35671496,-0.39587253,0.31860825],[0.40830866,-0.56466556,0.6919656,-0.61099005],[0.40830934,-0.5646656,0.6919664,-0.6109915],[-0.6502783,0.35671496,-0.39587253,0.31860825],[-0.7213469,0.61493874,0.5982922,-0.44000253],[0.40830904,-0.5646656,0.69196624,-0.61099106],[0.4271437,-0.5179102,-0.53042775,0.63538975],[0.4083083,-0.56466544,0.6919653,-0.6109899],[0.4271443,-0.5179103,-0.5304278,0.63538986],[-0.6502783,0.35671496,-0.39587253,0.31860825],[0.4271443,-0.5179103,-0.5304278,0.63538986],[-0.6502783,0.35671496,-0.39587253,0.31860825],[-0.6502783,0.35671496,-0.39587253,0.31860825],[0.4083083,-0.5646655,0.6919653,-0.6109899],[-0.6502783,0.35671496,-0.39587253,0.31860825],[-0.7213469,0.6149386,0.5982921,-0.44000247],[0.42713928,-0.5179098,-0.53042585,0.6353894],[0.40830916,-0.5646656,0.69196624,-0.61099124],[0.4271437,-0.5179102,-0.53042775,0.63538975]]}]